{
  "model": {
    "NUNITS": 3,
    "connections": {
      "NSWITCHES": 1,
      "switch_000": {
        "CONNECTIONS": [
          0.0,
          1.0,
          -1.0,
          -1.0,
          5.56e-09,
          1.0,
          2.0,
          -1.0,
          -1.0,
          5.56e-09
        ],
        "SECTION": 0
      }
    },
    "solver": {
      "GS_TYPE": 1,
      "MAX_KRYLOV": 0,
      "MAX_RESTARTS": 10,
      "SCHUR_SAFETY": 1e-06
    },
    "unit_000": {
      "INLET_TYPE": "PIECEWISE_CUBIC_POLY",
      "NCOMP": 1,
      "UNIT_TYPE": "INLET",
      "sec_000": {
        "CONST_COEFF": [
          4.55
        ],
        "CUBE_COEFF": [
          0.0
        ],
        "LIN_COEFF": [
          0.0
        ],
        "QUAD_COEFF": [
          0.0
        ]
      },
      "sec_001": {
        "CONST_COEFF": [
          4.55
        ],
        "CUBE_COEFF": [
          0.0
        ],
        "LIN_COEFF": [
          0.0
        ],
        "QUAD_COEFF": [
          0.0
        ]
      }
    },
    "unit_001": {
      "COL_DISPERSION": 7.550718e-08,
      "COL_LENGTH": 0.05,
      "COL_POROSITY": 0.256288,
      "CROSS_SECTION_AREA": 1.9997899142612784e-05,
      "INIT_C": [
        0.0
      ],
      "NCOMP": 1,
      "NPARTYPE": 1,
      "UNIT_TYPE": "COLUMN_MODEL_1D",
      "discretization": {
        "GS_TYPE": 1,
        "MAX_KRYLOV": 0,
        "MAX_RESTARTS": 10,
        "NCOL": 32,
        "RECONSTRUCTION": "WENO",
        "SCHUR_SAFETY": 1e-06,
        "SPATIAL_METHOD": "FV",
        "USE_ANALYTIC_JACOBIAN": 1,
        "weno": {
          "BOUNDARY_MODEL": 0,
          "WENO_EPS": 1e-08,
          "WENO_ORDER": 3
        }
      },
      "particle_type_000": {
        "ADSORPTION_MODEL": "NEURAL_NETWORK",
        "FILM_DIFFUSION": [
          1e-05
        ],
        "HAS_FILM_DIFFUSION": true,
        "HAS_PORE_DIFFUSION": true,
        "HAS_SURFACE_DIFFUSION": false,
        "INIT_CP": [
          0.0
        ],
        "INIT_CS": [
          0.0
        ],
        "NBOUND": [
          1
        ],
        "PAR_POROSITY": 0.75,
        "PAR_RADIUS": 4.5e-05,
        "PORE_DIFFUSION": [
          2.179105e-11
        ],
        "adsorption": {
          "IS_KINETIC": false,
          "NLAYERS": 2,
          "NNODES": 75,
          "NN_KKIN": [
            1000.0
          ],
          "bound_state_000": {
            "NORM_FACTOR": 2.0000000000000004,
            "POROSITY_FACTOR": 1.0,
            "layer_0": {
              "BIAS": [
                -0.04174868389964104,
                -0.015861501917243004,
                -0.015009104274213314,
                -0.010928412899374962,
                -0.00740217138081789,
                -0.03370559960603714,
                -0.004272104240953922,
                -0.008372323587536812,
                0.004253765102475882,
                0.012446455657482147,
                -0.02671271748840809,
                -0.011447980999946594,
                -0.04165436699986458,
                -0.002581374254077673,
                -0.040819693356752396,
                -0.020192187279462814,
                -0.02852487564086914,
                -0.011438452638685703,
                -0.006060087587684393,
                -0.0008026859723031521,
                -0.005657070782035589,
                -0.01571938768029213,
                -0.0296523105353117,
                -0.030273914337158203,
                -0.047292012721300125,
                -0.03660580515861511,
                -0.03281964361667633,
                -0.05355345085263252,
                -0.0454338863492012,
                -0.028570134192705154,
                -0.03654830902814865,
                -0.027401555329561234,
                -0.031224142760038376,
                0.0017894778866320848,
                -0.014223247766494751,
                -0.0020308448001742363,
                -0.03889762610197067,
                -0.009669202379882336,
                -0.039030615240335464,
                -0.016064397990703583,
                -0.012284749187529087,
                -0.011377034708857536,
                -0.0010420051403343678,
                -0.019809255376458168,
                -0.028390146791934967,
                -0.011168964207172394,
                -0.03268107771873474,
                -0.03278036415576935,
                -0.013345885090529919,
                -0.027677463367581367,
                -0.012827475555241108,
                -0.03856987878680229,
                -0.005346070043742657,
                -0.027887852862477303,
                0.0008322570356540382,
                -0.007649040315300226,
                0.004672517534345388,
                0.01911470852792263,
                -0.005632970482110977,
                -0.029638715088367462,
                1.7829708667704836e-05,
                0.0006836060783825815,
                -0.021959226578474045,
                -0.032595135271549225,
                -0.03838207945227623,
                -0.052218034863471985,
                -0.03213926777243614,
                -0.005234532989561558,
                -0.049099888652563095,
                -0.04240329936146736,
                6.328467861749232e-05,
                -0.03281513229012489,
                -0.034516699612140656,
                -0.030374664813280106,
                -0.029556412249803543
              ],
              "KERNEL": [
                0.116635262966156,
                -0.1934187412261963,
                -0.16723030805587769,
                -0.19763095676898956,
                -0.2239610105752945,
                0.07034201174974442,
                -0.17866703867912292,
                -0.10831543803215027,
                -0.11001931130886078,
                -0.11405400186777115,
                -0.15785042941570282,
                -0.13533952832221985,
                0.1138383150100708,
                -0.18058368563652039,
                0.050031039863824844,
                -0.20372946560382843,
                0.05442305654287338,
                -0.10907842963933945,
                -0.20451343059539795,
                -0.11544353514909744,
                -0.19622376561164856,
                0.0026253857649862766,
                -0.22086896002292633,
                -0.15898841619491577,
                -0.12378291040658951,
                -0.1701022982597351,
                -0.1206909716129303,
                0.08435963839292526,
                0.08786241710186005,
                0.1001867949962616,
                0.06797771900892258,
                0.08045037090778351,
                -0.16465283930301666,
                -0.14417284727096558,
                -0.20094439387321472,
                -0.127651184797287,
                0.12246956676244736,
                -0.21336615085601807,
                -0.18593627214431763,
                -0.21298299729824066,
                -0.19846908748149872,
                -0.14295043051242828,
                -0.0006394149968400598,
                -0.0928606390953064,
                0.06261453777551651,
                0.002340110018849373,
                0.08238745480775833,
                -0.14794804155826569,
                -0.10011565685272217,
                0.07942339032888412,
                0.002339951228350401,
                0.054693929851055145,
                0.001218124176375568,
                0.06154215708374977,
                0.00038759835297241807,
                -0.1405598372220993,
                -0.20710620284080505,
                -0.2139343023300171,
                0.0014487348962575197,
                -0.12963172793388367,
                -0.00012141928891651332,
                -0.1818850189447403,
                -0.1455439031124115,
                0.07350262254476547,
                0.0670037791132927,
                0.1221076175570488,
                -0.1816907376050949,
                -0.1940789371728897,
                0.07393237948417664,
                0.09521664679050446,
                -6.515663699246943e-06,
                0.08680549263954163,
                0.10217493772506714,
                0.10161130875349045,
                0.10091136395931244
              ]
            },
            "layer_1": {
              "BIAS": [
                0.0752703994512558,
                0.11309037357568741,
                0.11479119956493378,
                0.0615314245223999,
                0.1151261031627655,
                0.1197306215763092,
                0.11330266296863556,
                0.08152808994054794,
                0.071726955473423,
                0.060466717928647995,
                0.11300969868898392,
                0.11343197524547577,
                0.1134575679898262,
                0.11329150944948196,
                0.11341962218284607,
                0.11435096710920334,
                0.08359845727682114,
                0.11302123218774796,
                0.11348024755716324,
                0.11296695470809937,
                0.07660555094480515,
                0.11321442574262619,
                0.08950760960578918,
                0.11467737704515457,
                0.07252670079469681,
                0.078301340341568,
                0.11372804641723633,
                0.11489811539649963,
                0.11395341902971268,
                0.113213911652565,
                0.11297155171632767,
                0.07779070734977722,
                0.06830285489559174,
                0.11303605884313583,
                0.08784284442663193,
                0.11375253647565842,
                0.08474894613027573,
                0.06572891026735306,
                0.11398141086101532,
                0.09303978830575943,
                0.1147618442773819,
                0.07070021331310272,
                0.06258834898471832,
                0.11362876743078232,
                0.07282565534114838,
                0.11295972764492035,
                0.11396141350269318,
                0.07664903253316879,
                0.07117052376270294,
                0.07961855083703995,
                0.11756158620119095,
                0.11343314498662949,
                0.11332333832979202,
                0.07414202392101288,
                0.08041182160377502,
                0.0777764543890953,
                0.07293927669525146,
                0.08451393246650696,
                0.11303132027387619,
                0.11378612369298935,
                0.11296216398477554,
                0.06870456784963608,
                0.11397499591112137,
                0.11637917160987854,
                0.11302752047777176,
                0.11338607966899872,
                0.07012184709310532,
                0.0772377997636795,
                0.08199293911457062,
                0.07007380574941635,
                0.1132250651717186,
                0.0723828673362732,
                0.11289694160223007,
                0.11392559111118317,
                0.11303375661373138
              ],
              "KERNEL": [
                -0.22002269327640533,
                -0.009453218430280685,
                -0.05319589748978615,
                -0.18857142329216003,
                -0.027493851259350777,
                -0.027100373059511185,
                -0.06508487462997437,
                -0.2335725575685501,
                -0.1864350587129593,
                -0.18754664063453674,
                -0.04790135845541954,
                0.004467216320335865,
                -0.04338144510984421,
                -0.04875947907567024,
                -0.05296355485916138,
                0.010411331430077553,
                -0.2206476330757141,
                0.01864105835556984,
                -0.03628179803490639,
                -0.04684991389513016,
                -0.14336518943309784,
                -0.04244471341371536,
                -0.23786093294620514,
                0.018123634159564972,
                -0.21512870490550995,
                -0.19364792108535767,
                -0.013528292998671532,
                -0.04519183188676834,
                -0.004979981109499931,
                -0.04106515645980835,
                -0.04351231828331947,
                -0.18900689482688904,
                -0.16527043282985687,
                0.010411826893687248,
                -0.23969095945358276,
                -0.035078153014183044,
                -0.21324971318244934,
                -0.22760793566703796,
                -0.045911092311143875,
                -0.25137755274772644,
                -0.03664508834481239,
                -0.15809190273284912,
                -0.2138393223285675,
                0.005537346936762333,
                -0.19128528237342834,
                0.00810816790908575,
                0.004185063298791647,
                -0.19436049461364746,
                -0.16236507892608643,
                -0.1450859010219574,
                0.0074050212278962135,
                -0.03843800723552704,
                0.005339657887816429,
                -0.1757649928331375,
                -0.23765718936920166,
                -0.19194741547107697,
                -0.21097376942634583,
                -0.149198979139328,
                -0.0573270246386528,
                -0.05750545114278793,
                0.027820123359560966,
                -0.23748648166656494,
                0.001386451767757535,
                0.0032720337621867657,
                -0.039822716265916824,
                0.027916446328163147,
                -0.19645555317401886,
                -0.17484621703624725,
                -0.15028640627861023,
                -0.22926081717014313,
                -0.05937686190009117,
                -0.2323075532913208,
                -0.02954968996345997,
                -0.05087629705667496,
                0.012759381905198097,
                0.17648470401763916,
                -0.07292810827493668,
                -0.0186059158295393,
                0.2181229442358017,
                -0.0924629420042038,
                -0.012210791930556297,
                -0.06103511527180672,
                0.2312903255224228,
                0.24248714745044708,
                0.19058746099472046,
                -0.09108446538448334,
                -0.03337494283914566,
                -0.025458132848143578,
                -0.02600349485874176,
                -0.04370281100273132,
                -0.08857516944408417,
                0.254503458738327,
                -0.05189165472984314,
                -0.06708735227584839,
                -0.08265642076730728,
                0.20340532064437866,
                -0.05880669876933098,
                0.18855711817741394,
                -0.06273341178894043,
                0.1840166449546814,
                0.26893290877342224,
                -0.02256612665951252,
                -0.022019101306796074,
                -0.10020268708467484,
                -0.06267566233873367,
                -0.04557308554649353,
                0.26434341073036194,
                0.1972818374633789,
                -0.019055714830756187,
                0.25040873885154724,
                -0.05091297626495361,
                0.24361351132392883,
                0.2154984474182129,
                -0.044700946658849716,
                0.2368188202381134,
                -0.027405450120568275,
                0.2546883821487427,
                0.17245231568813324,
                -0.10050736367702484,
                0.2517898380756378,
                -0.0043168929405510426,
                -0.048198334872722626,
                0.22063472867012024,
                0.23136022686958313,
                0.23207518458366394,
                -0.021552395075559616,
                -0.08578046411275864,
                -0.09143578261137009,
                0.2305288165807724,
                0.1761818379163742,
                0.1996188759803772,
                0.23169295489788055,
                0.2655412256717682,
                -0.06792708486318588,
                -0.005091232247650623,
                -0.06692028790712357,
                0.2668543756008148,
                -0.0050278701819479465,
                -0.05812714993953705,
                -0.04163419455289841,
                -0.06551671773195267,
                0.2539246380329132,
                0.2065441757440567,
                0.18370796740055084,
                0.189666286110878,
                -0.07391425967216492,
                0.17193324863910675,
                -0.00958454329520464,
                -0.02630682848393917,
                -0.05770415812730789,
                0.22321899235248566,
                -0.026020804420113564,
                -0.013624363578855991,
                0.23870597779750824,
                -0.0018875994719564915,
                -0.04078451544046402,
                -0.006611099932342768,
                0.256694495677948,
                0.1962142288684845,
                0.2140202671289444,
                -0.057322341948747635,
                -0.04809175804257393,
                -0.06867439299821854,
                -0.011468896642327309,
                -0.09079224616289139,
                -0.01620747707784176,
                0.17949898540973663,
                -0.07665077596902847,
                -0.026068197563290596,
                -0.00975395180284977,
                0.2542519271373749,
                -0.03578660264611244,
                0.2555903494358063,
                -0.06385763734579086,
                0.18180464208126068,
                0.23236721754074097,
                -0.01760919578373432,
                -0.057093530893325806,
                -0.037663236260414124,
                -0.047834161669015884,
                -0.0034855310805141926,
                0.21854861080646515,
                0.17266249656677246,
                -0.060923367738723755,
                0.21754921972751617,
                -0.08009345829486847,
                0.20712381601333618,
                0.25998175144195557,
                -0.005544077139347792,
                0.20037582516670227,
                -0.008288945071399212,
                0.21930420398712158,
                0.1681276559829712,
                -0.07474444806575775,
                0.23146915435791016,
                -0.05779772624373436,
                -0.06099913269281387,
                0.2057105153799057,
                0.2190949022769928,
                0.22222717106342316,
                -0.08452057093381882,
                -0.023772256448864937,
                -0.02028466947376728,
                0.19065366685390472,
                0.2559847831726074,
                0.18540561199188232,
                0.18785054981708527,
                0.18316969275474548,
                -0.04644513130187988,
                -0.054709065705537796,
                -0.046628437936306,
                0.1792314052581787,
                -0.08905188739299774,
                -0.09004074335098267,
                -0.08376713842153549,
                -0.08668243885040283,
                0.25780051946640015,
                0.2500629425048828,
                0.21532371640205383,
                0.18264704942703247,
                -0.09181143343448639,
                0.2580648362636566,
                -0.009336032904684544,
                -0.02149537391960621,
                -0.05207662284374237,
                0.21210315823554993,
                -0.08987989276647568,
                -0.07408735901117325,
                0.21535278856754303,
                -0.002893987577408552,
                -0.05359679087996483,
                -0.10040697455406189,
                0.24783480167388916,
                0.2521352767944336,
                0.210480198264122,
                -0.07923685014247894,
                -0.016725005581974983,
                -0.06748415529727936,
                -0.04105585068464279,
                -0.06215741112828255,
                -0.0835806205868721,
                0.2446964532136917,
                -0.02796749398112297,
                -0.06641823798418045,
                -0.02042335644364357,
                0.22771169245243073,
                -0.004057725891470909,
                0.21990063786506653,
                -0.01660311222076416,
                0.17708955705165863,
                0.24038153886795044,
                -0.07522246241569519,
                -0.03956476226449013,
                -0.0066549815237522125,
                -0.09596972912549973,
                -0.0186067596077919,
                0.20009908080101013,
                0.2432619333267212,
                -0.016021056100726128,
                0.18352513015270233,
                -0.05787460878491402,
                0.2150445133447647,
                0.1806483268737793,
                -0.05808121711015701,
                0.20903615653514862,
                -0.03576262667775154,
                0.20888689160346985,
                0.24035635590553284,
                -0.012419122271239758,
                0.24056287109851837,
                -0.09900281578302383,
                -0.019922954961657524,
                0.23337239027023315,
                0.22766466438770294,
                0.23104630410671234,
                -0.045046932995319366,
                -0.06690753251314163,
                -0.06000848487019539,
                0.2479066401720047,
                0.21280226111412048,
                0.26520872116088867,
                0.19224756956100464,
                0.24952301383018494,
                -0.06886479258537292,
                -0.07018023729324341,
                -0.04841017723083496,
                0.18963219225406647,
                -0.10139861702919006,
                -0.061817292124032974,
                -0.002073009731248021,
                -0.07577091455459595,
                0.19576863944530487,
                0.21087051928043365,
                0.2522564232349396,
                0.2713887691497803,
                -0.0772198960185051,
                0.2717767357826233,
                -0.03429014980792999,
                -0.05265885591506958,
                -0.08640867471694946,
                0.19771350920200348,
                -0.056184396147727966,
                -0.05737416818737984,
                0.2712133228778839,
                -0.014768526889383793,
                -0.09399817138910294,
                -0.10606411099433899,
                0.2760860323905945,
                0.23463065922260284,
                0.24385951459407806,
                -0.0956585630774498,
                -0.02436935529112816,
                -0.07908207178115845,
                -0.03357723727822304,
                -0.01935608685016632,
                -0.09331546723842621,
                0.19171357154846191,
                -0.01975269429385662,
                -0.03519785404205322,
                -0.09928586333990097,
                0.24945394694805145,
                -0.03869810700416565,
                0.26698458194732666,
                -0.08232033252716064,
                0.21537837386131287,
                0.2155529260635376,
                -0.10110846161842346,
                -0.07055874168872833,
                -0.05659226328134537,
                -0.06001628562808037,
                -0.03116304986178875,
                0.24307364225387573,
                0.240784153342247,
                -0.04896857589483261,
                0.18884482979774475,
                -0.049555595964193344,
                0.24073365330696106,
                0.20390585064888,
                -0.033176541328430176,
                0.2475406378507614,
                -0.1022215187549591,
                0.25442036986351013,
                0.20749159157276154,
                -0.03492581099271774,
                0.2216692417860031,
                -0.03988169878721237,
                -0.040263593196868896,
                0.21439728140830994,
                0.22571228444576263,
                0.22129838168621063,
                -0.049852773547172546,
                -0.04476725682616234,
                -0.10103057324886322,
                0.2585671842098236,
                0.22469519078731537,
                0.22115972638130188,
                0.2514738440513611,
                0.2495894432067871,
                -0.029702018946409225,
                -0.048509981483221054,
                -0.062184952199459076,
                0.24324585497379303,
                -0.10481664538383484,
                -0.1024923026561737,
                -0.06607499718666077,
                -0.03226896747946739,
                0.23644126951694489,
                0.21636143326759338,
                0.21906469762325287,
                0.18988996744155884,
                -0.05101687088608742,
                0.1853366643190384,
                -0.02440643683075905,
                -0.10170184075832367,
                -0.08394268900156021,
                -0.1705542951822281,
                -0.01637343503534794,
                0.012166767381131649,
                -0.138356551527977,
                0.037196289747953415,
                0.003132063429802656,
                0.013458596542477608,
                -0.19960366189479828,
                -0.15963830053806305,
                -0.15662060678005219,
                -0.002684196922928095,
                0.0119943181052804,
                -0.04097063094377518,
                -0.05641154199838638,
                0.018245220184326172,
                -0.06193360686302185,
                -0.14953751862049103,
                0.01494632288813591,
                0.037132710218429565,
                -0.05736018344759941,
                -0.15968316793441772,
                -0.027207737788558006,
                -0.15247434377670288,
                -0.013248427771031857,
                -0.21900013089179993,
                -0.1838480830192566,
                -0.017855025827884674,
                -0.05468645691871643,
                -0.05488494783639908,
                -0.055090975016355515,
                0.032541122287511826,
                -0.17758174240589142,
                -0.1920050084590912,
                -0.04495307058095932,
                -0.14424075186252594,
                -0.010035041719675064,
                -0.23119032382965088,
                -0.14236797392368317,
                -0.044930193573236465,
                -0.23898053169250488,
                -0.004640098195523024,
                -0.1678483635187149,
                -0.14197681844234467,
                0.03644916042685509,
                -0.1873888373374939,
                -0.005179623607546091,
                -0.026190564036369324,
                -0.14991287887096405,
                -0.15083128213882446,
                -0.14030274748802185,
                0.030982987955212593,
                -0.018959321081638336,
                -0.04459677264094353,
                -0.22853334248065948,
                -0.21359875798225403,
                -0.18743722140789032,
                -0.22840777039527893,
                -0.139337420463562,
                -0.03711404651403427,
                0.029904596507549286,
                -0.006227770820260048,
                -0.2164296805858612,
                0.011046239174902439,
                0.011572351679205894,
                -0.00263824756257236,
                0.014327275566756725,
                -0.15731343626976013,
                -0.2216501235961914,
                -0.230979323387146,
                -0.18761925399303436,
                -0.048447009176015854,
                -0.19161346554756165,
                0.03457530587911606,
                -0.01632951758801937,
                0.02591259591281414,
                0.2778303027153015,
                -0.045933645218610764,
                -0.075762078166008,
                0.23884233832359314,
                -0.053876567631959915,
                -0.09834076464176178,
                -0.05197974666953087,
                0.18492791056632996,
                0.26857200264930725,
                0.2267632633447647,
                -0.014359268359839916,
                -0.01394516509026289,
                0.0006894412799738348,
                -0.08813673257827759,
                -0.003434186801314354,
                -0.0748332068324089,
                0.2597578465938568,
                -0.046392038464546204,
                -0.047401852905750275,
                -0.03154462203383446,
                0.2472580522298813,
                0.0018101362511515617,
                0.2703462243080139,
                -0.009291786700487137,
                0.25739699602127075,
                0.26810207962989807,
                -0.003212209092453122,
                -0.09429972618818283,
                -0.06338635087013245,
                -0.08362765610218048,
                -0.047266703099012375,
                0.24284888803958893,
                0.27003660798072815,
                -0.05126815289258957,
                0.22343705594539642,
                -0.07342506945133209,
                0.18672925233840942,
                0.2385244220495224,
                -0.0668666660785675,
                0.2169567346572876,
                -0.04819214716553688,
                0.22549839317798615,
                0.2637947201728821,
                -0.05192245543003082,
                0.25491636991500854,
                -0.018802303820848465,
                -0.06627723574638367,
                0.200203537940979,
                0.23366916179656982,
                0.23990367352962494,
                -0.07983458787202835,
                -0.0734919011592865,
                -0.05956342816352844,
                0.25595876574516296,
                0.26204633712768555,
                0.1929614394903183,
                0.20213690400123596,
                0.21397070586681366,
                -0.055148810148239136,
                -0.09098083525896072,
                -0.07684007287025452,
                0.23158936202526093,
                -0.08952176570892334,
                -0.08845333009958267,
                -0.03521475940942764,
                -0.06743712723255157,
                0.18000148236751556,
                0.27337467670440674,
                0.2510957419872284,
                0.2772796154022217,
                -0.040932878851890564,
                0.2719343602657318,
                -0.06677351146936417,
                -0.04153018444776535,
                -0.02222786471247673,
                0.19676761329174042,
                0.014467284083366394,
                0.01246117614209652,
                0.17688582837581635,
                0.0023403316736221313,
                0.00963305588811636,
                0.010948124341666698,
                0.18973462283611298,
                0.23387694358825684,
                0.18421229720115662,
                -0.008608810603618622,
                -0.03515442833304405,
                0.0018341189716011286,
                -0.03732959181070328,
                -0.030866475775837898,
                0.0023497925139963627,
                0.16192564368247986,
                -0.0019028100650757551,
                -0.04531323164701462,
                0.018275374546647072,
                0.18417632579803467,
                -0.04452420771121979,
                0.25758999586105347,
                -0.04018283635377884,
                0.1714431345462799,
                0.23162966966629028,
                -0.06810320168733597,
                -0.07397068291902542,
                -0.018888846039772034,
                -0.03782693296670914,
                -0.0006695962511003017,
                0.24127274751663208,
                0.21630632877349854,
                -0.016771923750638962,
                0.2432515174150467,
                0.011877219192683697,
                0.25182825326919556,
                0.1910405457019806,
                0.008192777633666992,
                0.20251251757144928,
                -0.0275008175522089,
                0.16690239310264587,
                0.2069336324930191,
                -0.06278541684150696,
                0.21912245452404022,
                -0.029685651883482933,
                0.014421592466533184,
                0.21629413962364197,
                0.19476303458213806,
                0.19531884789466858,
                0.008475732058286667,
                -0.06189419701695442,
                -0.029186127707362175,
                0.1936868131160736,
                0.21627308428287506,
                0.1863931566476822,
                0.19990727305412292,
                0.1752246469259262,
                -0.05126788839697838,
                -0.055063825100660324,
                -0.021350979804992676,
                0.23620189726352692,
                0.006882794201374054,
                -0.06283243745565414,
                -0.07082945853471756,
                -0.02393254078924656,
                0.2141195833683014,
                0.2555874288082123,
                0.20756715536117554,
                0.17683516442775726,
                -0.0671306625008583,
                0.2332891970872879,
                -0.0422956719994545,
                -0.04141401872038841,
                -0.07189492136240005,
                0.2178533971309662,
                -0.03613593056797981,
                0.020857278257608414,
                0.210470050573349,
                -0.049783822149038315,
                -0.05402909591794014,
                0.012621123343706131,
                0.26153695583343506,
                0.20882976055145264,
                0.24408158659934998,
                -0.023403599858283997,
                -0.02044234797358513,
                -0.05291648209095001,
                -0.07403196394443512,
                -0.006851670797914267,
                -0.044178977608680725,
                0.2773869037628174,
                -0.04661048576235771,
                0.0021950416266918182,
                0.004645889159291983,
                0.22387830913066864,
                -0.034272223711013794,
                0.24875237047672272,
                -0.07409857958555222,
                0.18260589241981506,
                0.19900016486644745,
                -0.008821697905659676,
                0.01836780086159706,
                -0.01974758505821228,
                0.017411619424819946,
                0.02014903910458088,
                0.25411516427993774,
                0.1977284997701645,
                -0.020906517282128334,
                0.22642523050308228,
                -0.05414475128054619,
                0.20394697785377502,
                0.22935891151428223,
                0.007245761342346668,
                0.19529606401920319,
                -0.035160716623067856,
                0.21496687829494476,
                0.17994870245456696,
                -0.039786774665117264,
                0.2526978850364685,
                -0.027356697246432304,
                -0.022218337282538414,
                0.20522907376289368,
                0.20488499104976654,
                0.2682257294654846,
                -0.007212674245238304,
                -0.03559818118810654,
                0.01727469637989998,
                0.19373340904712677,
                0.18721434473991394,
                0.2642935514450073,
                0.25711068511009216,
                0.24156714975833893,
                -0.06434722244739532,
                0.01640174351632595,
                -0.0483529157936573,
                0.2284417599439621,
                0.015380404889583588,
                -0.06354541331529617,
                -0.0005011149332858622,
                -0.015490979887545109,
                0.21581335365772247,
                0.27579912543296814,
                0.2705763280391693,
                0.2254723310470581,
                -0.006908172741532326,
                0.1949712187051773,
                -0.06355264782905579,
                -0.04166919365525246,
                -0.026334965601563454,
                0.18190151453018188,
                -0.056338727474212646,
                0.01946686953306198,
                0.24757111072540283,
                -0.020945098251104355,
                -0.06318314373493195,
                -0.04318758845329285,
                0.2345176786184311,
                0.24780982732772827,
                0.25971582531929016,
                -0.0022719723638147116,
                -0.011802001856267452,
                -0.0014403634704649448,
                -0.004079495090991259,
                -0.027455724775791168,
                -0.007995943538844585,
                0.19928573071956635,
                -0.01921807788312435,
                0.025380438193678856,
                -0.02596295066177845,
                0.25143471360206604,
                -0.0008053694036789238,
                0.23982013761997223,
                0.026011260226368904,
                0.25809547305107117,
                0.2302207052707672,
                -0.062011703848838806,
                0.007892647758126259,
                0.02346983551979065,
                0.021505894139409065,
                -0.05669337138533592,
                0.2106407880783081,
                0.2070775330066681,
                -0.047666873782873154,
                0.24449582397937775,
                -0.0007142932154238224,
                0.23775288462638855,
                0.23173247277736664,
                -0.0428902693092823,
                0.2647329270839691,
                -0.013656597584486008,
                0.22160984575748444,
                0.1946384161710739,
                0.016087599098682404,
                0.23368147015571594,
                -0.006742095574736595,
                -0.06649036705493927,
                0.1773240566253662,
                0.20438069105148315,
                0.16475652158260345,
                -0.004119206219911575,
                -0.012216860428452492,
                0.016146820038557053,
                0.2561388313770294,
                0.2204843908548355,
                0.249220073223114,
                0.16652032732963562,
                0.2364974468946457,
                -0.023547271266579628,
                -0.004470162559300661,
                0.0007785239722579718,
                0.20982663333415985,
                -0.00850912556052208,
                0.008314781822264194,
                -0.004937461577355862,
                -0.06415008008480072,
                0.2073165476322174,
                0.24333195388317108,
                0.2532990574836731,
                0.18759053945541382,
                -0.06718569993972778,
                0.17093412578105927,
                -0.03783523663878441,
                0.0013359885197132826,
                -0.03695846349000931,
                0.2067665308713913,
                -0.04240035638213158,
                -0.05981775373220444,
                0.23275330662727356,
                -0.02068408578634262,
                -0.09150496125221252,
                -0.008095350116491318,
                0.19428101181983948,
                0.15230733156204224,
                0.18603874742984772,
                0.0037411379162222147,
                -0.08070366829633713,
                -0.01101589947938919,
                -0.05372803285717964,
                -0.03820735588669777,
                -0.057046111673116684,
                0.1870996505022049,
                -0.023680182173848152,
                0.0001229856861755252,
                -0.027756787836551666,
                0.22090725600719452,
                -0.09120652079582214,
                0.18676570057868958,
                -0.020973598584532738,
                0.1795589178800583,
                0.18855664134025574,
                -0.027972232550382614,
                -0.07827021926641464,
                -0.046690329909324646,
                0.005826116539537907,
                -0.08735878020524979,
                0.2075767070055008,
                0.23621229827404022,
                -0.031215697526931763,
                0.20212043821811676,
                -0.019661959260702133,
                0.18187788128852844,
                0.19556882977485657,
                -0.04621642082929611,
                0.2142956554889679,
                -0.015367050655186176,
                0.21061260998249054,
                0.21423865854740143,
                -0.07546789199113846,
                0.19983497262001038,
                -0.02780880779027939,
                -0.0631587877869606,
                0.15491555631160736,
                0.15818756818771362,
                0.22670093178749084,
                -0.03132077306509018,
                -0.04319292679429054,
                -0.03905097022652626,
                0.16327154636383057,
                0.1645796298980713,
                0.1799475997686386,
                0.20263521373271942,
                0.1449040025472641,
                -0.07051254063844681,
                -0.05739768594503403,
                -0.04745784029364586,
                0.1579657942056656,
                -0.04758121073246002,
                -0.010560963302850723,
                -0.08503587543964386,
                -0.05557896941900253,
                0.18196018040180206,
                0.16663052141666412,
                0.22040605545043945,
                0.191745325922966,
                -0.04919157922267914,
                0.17760726809501648,
                -0.09074269980192184,
                -0.009075704962015152,
                -0.08874748647212982,
                0.2356012612581253,
                -0.016320327296853065,
                -0.05271444469690323,
                0.19047559797763824,
                -0.07241453230381012,
                -0.08611216396093369,
                -0.07785879820585251,
                0.1796722114086151,
                0.25179535150527954,
                0.19519416987895966,
                0.0046743303537368774,
                -0.015017335303127766,
                -0.043535035103559494,
                -0.010278500616550446,
                -0.004580941051244736,
                -0.06355168670415878,
                0.26057925820350647,
                -0.07719798386096954,
                -0.01882071979343891,
                -0.011491520330309868,
                0.24253730475902557,
                -0.046739544719457626,
                0.21716898679733276,
                -0.07633177936077118,
                0.21430757641792297,
                0.17729666829109192,
                -0.0473313070833683,
                -0.01995157264173031,
                -0.06597917526960373,
                -0.07354160398244858,
                0.006006662268191576,
                0.2660521864891052,
                0.19427283108234406,
                0.01137605495750904,
                0.17060987651348114,
                -0.0057332441210746765,
                0.26361313462257385,
                0.23635607957839966,
                -0.0726134181022644,
                0.2065138816833496,
                -0.052894480526447296,
                0.23991554975509644,
                0.18218016624450684,
                -0.009889846667647362,
                0.1828443855047226,
                -0.05381722003221512,
                -0.04547600820660591,
                0.2072281539440155,
                0.2361554652452469,
                0.23044663667678833,
                -0.037152715027332306,
                -0.07293003052473068,
                -0.055292870849370956,
                0.20199166238307953,
                0.22700244188308716,
                0.22482416033744812,
                0.18060334026813507,
                0.20096845924854279,
                0.006467374972999096,
                -0.07433685660362244,
                -0.05287983641028404,
                0.22939713299274445,
                -0.04439554363489151,
                -0.08040044456720352,
                -0.07131542265415192,
                -0.0016196349170058966,
                0.20589731633663177,
                0.19811825454235077,
                0.21981920301914215,
                0.20041720569133759,
                -0.06369468569755554,
                0.18967056274414062,
                0.007997171021997929,
                -0.07987217605113983,
                -0.007213402073830366,
                -0.21751534938812256,
                -0.04420984536409378,
                -0.047214727848768234,
                -0.22537855803966522,
                0.02945014461874962,
                0.004824525211006403,
                -0.003533962881192565,
                -0.14729444682598114,
                -0.20029494166374207,
                -0.17847226560115814,
                -0.01108850259333849,
                -0.037441544234752655,
                0.025572804734110832,
                -0.030501913279294968,
                -0.005695718340575695,
                0.03002159669995308,
                -0.2159758061170578,
                -0.028458314016461372,
                -0.03361235931515694,
                -0.023266075178980827,
                -0.16151249408721924,
                -0.03575407713651657,
                -0.24586570262908936,
                -0.0004494368622545153,
                -0.1849784404039383,
                -0.14915761351585388,
                -0.04544265568256378,
                -0.03010261245071888,
                -0.06311284750699997,
                -0.003109645564109087,
                -0.017262183129787445,
                -0.14748434722423553,
                -0.21972891688346863,
                -0.013034084811806679,
                -0.2420521378517151,
                -0.056220050901174545,
                -0.15737928450107574,
                -0.14280027151107788,
                -0.030775902792811394,
                -0.23909936845302582,
                -0.05229213088750839,
                -0.209824338555336,
                -0.20767898857593536,
                0.014211295172572136,
                -0.15935368835926056,
                0.010885234922170639,
                -0.06473439186811447,
                -0.19398251175880432,
                -0.21705245971679688,
                -0.19383840262889862,
                -0.02182735875248909,
                0.024655088782310486,
                0.025235043838620186,
                -0.23824214935302734,
                -0.1492754966020584,
                -0.16021490097045898,
                -0.19562043249607086,
                -0.16451884806156158,
                0.010044229216873646,
                0.022162649780511856,
                -0.06290798634290695,
                -0.2214144468307495,
                -0.06639570742845535,
                -0.05429791286587715,
                -0.06773293763399124,
                -0.040854908525943756,
                -0.2255823314189911,
                -0.14365944266319275,
                -0.239470437169075,
                -0.209469273686409,
                -0.049930498003959656,
                -0.22055599093437195,
                -0.025981727987527847,
                -0.008541613817214966,
                -0.04296083748340607,
                0.2428325116634369,
                -0.04144309088587761,
                -0.06010479852557182,
                0.25479090213775635,
                -0.002473201137036085,
                -0.08216836303472519,
                -0.04855861887335777,
                0.21314507722854614,
                0.2180846780538559,
                0.22688007354736328,
                -0.05964663252234459,
                -0.029284311458468437,
                -0.06337650120258331,
                -0.05429518595337868,
                -0.020622586831450462,
                -0.08738195896148682,
                0.18301747739315033,
                -0.06567195057868958,
                -0.023040421307086945,
                -0.08057950437068939,
                0.21581386029720306,
                -0.011677004396915436,
                0.2602888345718384,
                -0.059802986681461334,
                0.2604915201663971,
                0.20886722207069397,
                -0.012148510664701462,
                -0.025016434490680695,
                -0.062345582991838455,
                -0.03644629195332527,
                -0.07084128260612488,
                0.1800176501274109,
                0.2745954096317291,
                0.0025032118428498507,
                0.2781478464603424,
                -0.06637377291917801,
                0.259737491607666,
                0.20751158893108368,
                -0.04186395928263664,
                0.2548602819442749,
                -0.0937378853559494,
                0.23730266094207764,
                0.18296286463737488,
                -0.002931329421699047,
                0.229624405503273,
                -0.04239596426486969,
                8.37128609418869e-05,
                0.1994587481021881,
                0.25521010160446167,
                0.23583446443080902,
                -0.01575092226266861,
                -0.09084630757570267,
                -0.009961478412151337,
                0.23039016127586365,
                0.21836532652378082,
                0.2504880726337433,
                0.1854051649570465,
                0.22025860846042633,
                -0.033447589725255966,
                -0.03887440636754036,
                -0.02801375277340412,
                0.2771434783935547,
                -0.0021413320209831,
                -0.03661982715129852,
                -0.03534068539738655,
                0.0006751773180440068,
                0.22167181968688965,
                0.19174237549304962,
                0.2709524929523468,
                0.20024798810482025,
                -0.04605799913406372,
                0.18662786483764648,
                -0.08813804388046265,
                -0.05846352130174637,
                -0.017617838457226753,
                -0.1981717050075531,
                0.003867123043164611,
                -0.002684730803593993,
                -0.14667336642742157,
                -0.0299789197742939,
                -0.0011848520953208208,
                0.040221527218818665,
                -0.2188204824924469,
                -0.15417948365211487,
                -0.1437350958585739,
                -0.04679921269416809,
                -0.05562314763665199,
                0.040592387318611145,
                -0.0310488473623991,
                0.015102973207831383,
                -0.05057849735021591,
                -0.18879757821559906,
                0.007198637817054987,
                -0.016893770545721054,
                0.03700026497244835,
                -0.1785506308078766,
                0.04125107824802399,
                -0.16191013157367706,
                -0.013617707416415215,
                -0.17593133449554443,
                -0.17015637457370758,
                0.01460270956158638,
                -0.0280572772026062,
                -0.02543330006301403,
                -0.04158809036016464,
                0.036584001034498215,
                -0.2030346840620041,
                -0.14711003005504608,
                0.011291728354990482,
                -0.18630176782608032,
                0.030237076804041862,
                -0.18440251052379608,
                -0.15291450917720795,
                -0.028095398098230362,
                -0.1828741580247879,
                0.012784043326973915,
                -0.149139404296875,
                -0.1565411388874054,
                0.009577140212059021,
                -0.16336973011493683,
                0.005244052968919277,
                -0.051363278180360794,
                -0.2287100851535797,
                -0.17835372686386108,
                -0.19650287926197052,
                -0.007140158209949732,
                -0.05499456077814102,
                0.003228255780413747,
                -0.1343451291322708,
                -0.1721094399690628,
                -0.20677828788757324,
                -0.16170360147953033,
                -0.1957947164773941,
                -0.014764055609703064,
                0.014004398137331009,
                -0.030493881553411484,
                -0.19723595678806305,
                -0.04698031023144722,
                -0.01608779840171337,
                -0.047098152339458466,
                -0.026848848909139633,
                -0.16192643344402313,
                -0.16736462712287903,
                -0.18919086456298828,
                -0.1463787853717804,
                -0.03041227161884308,
                -0.18945738673210144,
                -0.03814679756760597,
                -0.0064905486069619656,
                -0.01706838421523571,
                0.19649608433246613,
                -0.04884110018610954,
                -0.08184020966291428,
                0.21433058381080627,
                -0.0975484848022461,
                -0.07961972802877426,
                -0.08504345268011093,
                0.1676909476518631,
                0.2492222934961319,
                0.19387689232826233,
                -0.020759331062436104,
                -0.04380221664905548,
                -0.06486883014440536,
                -0.04265746846795082,
                -0.07745904475450516,
                -0.07000397145748138,
                0.24643369019031525,
                -0.09614033252000809,
                -0.015462641604244709,
                -0.077153280377388,
                0.2590272128582001,
                -0.08492780476808548,
                0.17277342081069946,
                -0.022757628932595253,
                0.17283029854297638,
                0.25524061918258667,
                -0.07555220276117325,
                -0.022125747054815292,
                -0.0538175031542778,
                -0.043958667665719986,
                -0.05746154487133026,
                0.23202431201934814,
                0.2048902064561844,
                -0.07950200885534286,
                0.25956618785858154,
                -0.015247141011059284,
                0.24790851771831512,
                0.19258210062980652,
                -0.05506917089223862,
                0.22372455894947052,
                -0.020267346873879433,
                0.17937806248664856,
                0.18892601132392883,
                -0.06880230456590652,
                0.18893960118293762,
                -0.0941406860947609,
                -0.012975824065506458,
                0.2554694414138794,
                0.21738195419311523,
                0.2495179921388626,
                -0.07964544743299484,
                -0.09112635254859924,
                -0.0341012217104435,
                0.17329800128936768,
                0.20010726153850555,
                0.18240830302238464,
                0.24092262983322144,
                0.2126844823360443,
                -0.02267446182668209,
                -0.07316655665636063,
                -0.061806391924619675,
                0.23413516581058502,
                -0.08725951611995697,
                -0.038097456097602844,
                -0.06192808225750923,
                -0.09311287850141525,
                0.1784517616033554,
                0.24918133020401,
                0.22847981750965118,
                0.16896997392177582,
                -0.00779851945117116,
                0.23881231248378754,
                -0.08238764107227325,
                -0.0649435967206955,
                -0.00860501267015934,
                -0.20171746611595154,
                0.02228935807943344,
                -0.015677792951464653,
                -0.20537903904914856,
                -0.0044306362979114056,
                0.019936487078666687,
                0.020675497129559517,
                -0.2051243931055069,
                -0.16998492181301117,
                -0.15672655403614044,
                -0.030221084132790565,
                0.03622753918170929,
                -0.012396075762808323,
                0.01977577432990074,
                -0.04443760961294174,
                0.0295404139906168,
                -0.20988881587982178,
                0.007520546205341816,
                -0.005439728498458862,
                -0.011284600012004375,
                -0.15730740129947662,
                -0.02960900031030178,
                -0.17242296040058136,
                -0.046057410538196564,
                -0.22701917588710785,
                -0.19279059767723083,
                0.02664267085492611,
                -0.052706971764564514,
                -0.02789677493274212,
                -0.009905354119837284,
                -0.022199828177690506,
                -0.2220756858587265,
                -0.1495748609304428,
                -0.018418285995721817,
                -0.2276415377855301,
                -0.012504270300269127,
                -0.16750337183475494,
                -0.22354663908481598,
                -0.028890114277601242,
                -0.1397687941789627,
                0.01577768474817276,
                -0.23060044646263123,
                -0.13520140945911407,
                -0.03838758170604706,
                -0.1365559697151184,
                0.03309489041566849,
                -0.04807611554861069,
                -0.21910551190376282,
                -0.2333812266588211,
                -0.19715093076229095,
                0.008676338940858841,
                -0.009535068646073341,
                0.007422187365591526,
                -0.13918910920619965,
                -0.21041885018348694,
                -0.15648981928825378,
                -0.19255250692367554,
                -0.17156609892845154,
                -0.008178993128240108,
                -0.031364504247903824,
                -0.010943976230919361,
                -0.1985381543636322,
                -0.049574654549360275,
                0.04115539416670799,
                -0.041977521032094955,
                -0.02481290139257908,
                -0.2295496016740799,
                -0.18765759468078613,
                -0.167781800031662,
                -0.17994169890880585,
                0.0073468866758048534,
                -0.17144112288951874,
                0.043679509311914444,
                -0.05454054847359657,
                -0.010252350941300392,
                0.24120649695396423,
                -0.058358777314424515,
                -0.039747439324855804,
                0.2115604728460312,
                0.0028854194097220898,
                -0.017131617292761803,
                -0.024993155151605606,
                0.2544820010662079,
                0.17215916514396667,
                0.2598676383495331,
                -0.05276808142662048,
                -0.03979884088039398,
                -0.03518809750676155,
                -0.018749631941318512,
                -0.07421775162220001,
                -0.04746872931718826,
                0.23906852304935455,
                -0.014673775061964989,
                -0.066025011241436,
                0.009540541097521782,
                0.22121696174144745,
                -0.0642019659280777,
                0.23311905562877655,
                -0.02074054628610611,
                0.22705526649951935,
                0.20883631706237793,
                -0.04920851066708565,
                -0.02511807158589363,
                -0.02517787553369999,
                -0.05377316102385521,
                -0.06866782158613205,
                0.2533203959465027,
                0.2119472771883011,
                -0.014296792447566986,
                0.19248269498348236,
                -0.008834919892251492,
                0.17891864478588104,
                0.20191983878612518,
                -0.023221729323267937,
                0.24078530073165894,
                -0.04135942459106445,
                0.17475466430187225,
                0.23273435235023499,
                0.019656838849186897,
                0.18137961626052856,
                -0.01910432241857052,
                -0.0676562711596489,
                0.19475477933883667,
                0.21421678364276886,
                0.22822438180446625,
                -0.029162144288420677,
                0.014961972832679749,
                -0.05086006596684456,
                0.23289820551872253,
                0.21507969498634338,
                0.2110808938741684,
                0.2167382389307022,
                0.19186371564865112,
                -0.03745531663298607,
                0.010426130145788193,
                0.01790100522339344,
                0.224161759018898,
                -0.06305455416440964,
                -0.04428926855325699,
                -0.06479185074567795,
                0.011636769399046898,
                0.22491823136806488,
                0.2506215572357178,
                0.2300908863544464,
                0.2454175055027008,
                -0.07172849029302597,
                0.23994408547878265,
                -0.042627062648534775,
                -0.020587872713804245,
                0.0011706791119650006,
                0.1889105886220932,
                -0.016577018424868584,
                -0.06819530576467514,
                0.25431591272354126,
                -0.04718190059065819,
                -0.0936880111694336,
                -0.08109299838542938,
                0.20967280864715576,
                0.2110162228345871,
                0.2310647815465927,
                -0.018917785957455635,
                -0.022064346820116043,
                -0.05527234077453613,
                -0.01376322191208601,
                -0.03594130277633667,
                -0.041072528809309006,
                0.17757822573184967,
                -0.09532176703214645,
                -0.02317291498184204,
                -0.10233913362026215,
                0.2443094104528427,
                -0.06915732473134995,
                0.23362696170806885,
                -0.015397340059280396,
                0.24825379252433777,
                0.23295415937900543,
                -0.0960700735449791,
                -0.02575661800801754,
                -0.03998275473713875,
                -0.05055601894855499,
                -0.006581449415534735,
                0.18546441197395325,
                0.25240617990493774,
                -0.093692347407341,
                0.2676263451576233,
                -0.059731803834438324,
                0.27801671624183655,
                0.184660866856575,
                -0.054813358932733536,
                0.27253231406211853,
                -0.03842872381210327,
                0.22525595128536224,
                0.20325087010860443,
                -0.06540181487798691,
                0.22272756695747375,
                -0.0377945639193058,
                -0.00379149429500103,
                0.25649112462997437,
                0.2703677713871002,
                0.2685881555080414,
                -0.07658228278160095,
                -0.02266756258904934,
                -0.07447156310081482,
                0.19071190059185028,
                0.219068244099617,
                0.20455294847488403,
                0.2679021954536438,
                0.2212417721748352,
                -0.005228492431342602,
                -0.05298534035682678,
                -0.08720700442790985,
                0.20121793448925018,
                -0.03516615554690361,
                -0.10304020345211029,
                -0.06099335849285126,
                -0.03754532337188721,
                0.19613225758075714,
                0.24094605445861816,
                0.22332888841629028,
                0.23256802558898926,
                -0.06626950204372406,
                0.26017069816589355,
                -0.0765749141573906,
                -0.020853405818343163,
                -0.0885259136557579,
                0.24254176020622253,
                -0.07346545159816742,
                -0.0386129692196846,
                0.2494812309741974,
                -0.03767712414264679,
                -0.05079590529203415,
                0.0006390597554855049,
                0.2594793140888214,
                0.2081506997346878,
                0.22307716310024261,
                -0.056815654039382935,
                0.010275309905409813,
                -0.016277775168418884,
                -0.034698449075222015,
                -0.023143036291003227,
                -0.037546124309301376,
                0.19482743740081787,
                0.009455314837396145,
                -0.034641608595848083,
                0.00031694790231995285,
                0.26706790924072266,
                -0.07525733858346939,
                0.18412736058235168,
                -0.0669659748673439,
                0.19235801696777344,
                0.24813112616539001,
                -0.013842093758285046,
                0.008353305980563164,
                -0.03607412800192833,
                0.004798492416739464,
                0.016671160236001015,
                0.2685632109642029,
                0.2549857497215271,
                -0.07904867827892303,
                0.22798751294612885,
                -0.0515282079577446,
                0.2164367437362671,
                0.23518596589565277,
                -0.024192066863179207,
                0.19231872260570526,
                -0.07087412476539612,
                0.18129098415374756,
                0.2503686547279358,
                -0.06963957846164703,
                0.2772252559661865,
                -0.03746921196579933,
                -0.0042203315533697605,
                0.24579380452632904,
                0.20308083295822144,
                0.26325523853302,
                -0.03984784334897995,
                0.007588558830320835,
                -0.03703829273581505,
                0.20580679178237915,
                0.2527191638946533,
                0.2541544437408447,
                0.2083953469991684,
                0.28207892179489136,
                0.0004307491471990943,
                -0.010928206145763397,
                -0.04013746976852417,
                0.23678061366081238,
                -0.01931603066623211,
                -0.04074671119451523,
                -0.0034117065370082855,
                -0.020322240889072418,
                0.23412680625915527,
                0.27001985907554626,
                0.19101372361183167,
                0.20400629937648773,
                0.010015429928898811,
                0.21627680957317352,
                -0.022798800840973854,
                -0.043334055691957474,
                -0.0429343581199646,
                0.23103736340999603,
                -0.04106985405087471,
                -0.023545127362012863,
                0.18905745446681976,
                -0.09562399983406067,
                -0.03319418057799339,
                -0.06360699236392975,
                0.22957903146743774,
                0.22345590591430664,
                0.24762727320194244,
                -0.05420544743537903,
                -0.07434041798114777,
                -0.05266980081796646,
                -0.010553729720413685,
                -0.02826538123190403,
                -0.023459358140826225,
                0.24140045046806335,
                -0.06094454973936081,
                -0.07748053222894669,
                -0.08440625667572021,
                0.2618676424026489,
                -0.056177131831645966,
                0.19118160009384155,
                -0.026279807090759277,
                0.25299811363220215,
                0.21321618556976318,
                -0.07982602715492249,
                -0.014808709733188152,
                -0.0934985801577568,
                -0.0238751620054245,
                -0.08534406870603561,
                0.24011804163455963,
                0.19036425650119781,
                -0.038683101534843445,
                0.27506980299949646,
                -0.012371594086289406,
                0.24770565330982208,
                0.21992358565330505,
                -0.08439219743013382,
                0.28325074911117554,
                -0.002294987440109253,
                0.24330571293830872,
                0.27064377069473267,
                -0.023318348452448845,
                0.18550293147563934,
                -0.037166859954595566,
                -0.001749149290844798,
                0.21887648105621338,
                0.19083838164806366,
                0.2362099289894104,
                -0.042009320110082626,
                -0.017829107120633125,
                -0.04843226075172424,
                0.22397257387638092,
                0.27410173416137695,
                0.22238530218601227,
                0.22217239439487457,
                0.27204248309135437,
                -0.02652055211365223,
                -0.0008952639764174819,
                -0.0038162125274538994,
                0.19739790260791779,
                -0.07390109449625015,
                -0.050961729139089584,
                -0.08530695736408234,
                -0.07803995907306671,
                0.20538663864135742,
                0.21270082890987396,
                0.20538967847824097,
                0.2419610619544983,
                -0.04553430899977684,
                0.22206014394760132,
                -0.04772372916340828,
                -0.07384448498487473,
                -0.06174151226878166,
                -0.10398650169372559,
                0.01902964524924755,
                0.023902583867311478,
                -0.09263278543949127,
                0.010454497300088406,
                -0.011474262923002243,
                -0.04000582545995712,
                -0.13934864103794098,
                -0.07428964227437973,
                -0.10917973518371582,
                0.037011269479990005,
                -0.029685109853744507,
                0.007648353930562735,
                0.021664416417479515,
                -0.02230549231171608,
                0.031147407367825508,
                -0.05748320370912552,
                0.03582004830241203,
                -0.05497873201966286,
                -0.012899776920676231,
                -0.1515272855758667,
                0.01881602220237255,
                -0.14522092044353485,
                -0.04078146070241928,
                -0.07842785865068436,
                -0.06302813440561295,
                0.034710947424173355,
                0.04178980737924576,
                -0.021961692720651627,
                -0.0007095615146681666,
                0.0057198842987418175,
                -0.12689082324504852,
                -0.11235293000936508,
                -0.02149679698050022,
                -0.140886127948761,
                -0.04191400855779648,
                -0.11878786236047745,
                -0.12682893872261047,
                -0.010798144154250622,
                -0.09739809483289719,
                -0.04436097666621208,
                -0.15021438896656036,
                -0.1140868067741394,
                -0.012021101079881191,
                -0.16281567513942719,
                -0.021842390298843384,
                0.0005731963319703937,
                -0.11961869895458221,
                -0.16919013857841492,
                -0.12463036179542542,
                0.0027945945039391518,
                0.015068499371409416,
                -0.030663933604955673,
                -0.07923295348882675,
                -0.1378556191921234,
                -0.13507965207099915,
                -0.10134115070104599,
                -0.134568452835083,
                -0.008314166218042374,
                -0.03225548565387726,
                0.009745695628225803,
                -0.17337901890277863,
                -0.010191568173468113,
                0.038812898099422455,
                0.02929937094449997,
                0.03701348602771759,
                -0.13443459570407867,
                -0.12256021797657013,
                -0.06162659823894501,
                -0.11702989041805267,
                -0.05542843043804169,
                -0.08033829927444458,
                0.030619194731116295,
                0.011464240960776806,
                -0.01825517788529396,
                0.1632574051618576,
                -0.05698429048061371,
                -0.04020407423377037,
                0.15813781321048737,
                -0.09287117421627045,
                -0.058627594262361526,
                -0.10236204415559769,
                0.2027309536933899,
                0.19215276837348938,
                0.18222123384475708,
                -0.1092161163687706,
                -0.025847116485238075,
                -0.06636201590299606,
                -0.06485293060541153,
                -0.07810741662979126,
                -0.06268800795078278,
                0.16088585555553436,
                -0.009828660637140274,
                -0.015064585953950882,
                -0.10115250200033188,
                0.23314687609672546,
                -0.09838265180587769,
                0.181207537651062,
                -0.10453315824270248,
                0.2344774603843689,
                0.21470703184604645,
                -0.023740867152810097,
                -0.06054814159870148,
                -0.06291653215885162,
                -0.0967288389801979,
                -0.07351478934288025,
                0.20866911113262177,
                0.15889203548431396,
                -0.02525266259908676,
                0.18374300003051758,
                -0.04478874430060387,
                0.18022288382053375,
                0.21892738342285156,
                -0.07773985713720322,
                0.23531685769557953,
                -0.05660386011004448,
                0.18508727848529816,
                0.22359709441661835,
                -0.02944842539727688,
                0.2505960464477539,
                -0.0557454489171505,
                -0.027225224301218987,
                0.16741856932640076,
                0.22393763065338135,
                0.1789321005344391,
                -0.0696152001619339,
                -0.015539024956524372,
                -0.08708224445581436,
                0.1607818901538849,
                0.22961343824863434,
                0.1779588758945465,
                0.163478821516037,
                0.2326016128063202,
                -0.04928455501794815,
                -0.10608554631471634,
                -0.10581248998641968,
                0.20367726683616638,
                -0.05903385579586029,
                -0.08770780265331268,
                -0.09538087248802185,
                -0.076640285551548,
                0.23082154989242554,
                0.24621827900409698,
                0.22219185531139374,
                0.15609702467918396,
                -0.06725551187992096,
                0.2350645661354065,
                -0.05901419743895531,
                -0.09937795996665955,
                -0.0706648975610733,
                0.17532631754875183,
                -0.01370419654995203,
                0.0033701297361403704,
                0.14903438091278076,
                -0.02740320935845375,
                -0.0867961049079895,
                -0.027727028355002403,
                0.20506194233894348,
                0.17164719104766846,
                0.23228631913661957,
                -0.09128431230783463,
                -0.0854542925953865,
                -0.015333392657339573,
                -0.02418425865471363,
                -0.09118066728115082,
                -0.0019269282929599285,
                0.20918072760105133,
                -0.013242353685200214,
                -0.0374055914580822,
                -0.0772443413734436,
                0.15013732016086578,
                -0.008719450794160366,
                0.19312967360019684,
                -0.07519697397947311,
                0.18596644699573517,
                0.1995602548122406,
                -0.005849248263984919,
                -0.039317451417446136,
                -0.0862540528178215,
                -0.061702482402324677,
                -0.05101637542247772,
                0.14685975015163422,
                0.15276692807674408,
                -0.06031717360019684,
                0.14873428642749786,
                -0.08160493522882462,
                0.20269827544689178,
                0.14346319437026978,
                -0.06914214789867401,
                0.12884145975112915,
                -0.012045357376337051,
                0.18888776004314423,
                0.1966668665409088,
                -0.04538353160023689,
                0.1527118980884552,
                -0.006916951388120651,
                0.0035278862342238426,
                0.18526574969291687,
                0.1692710518836975,
                0.17537513375282288,
                -0.07313462346792221,
                -0.050508059561252594,
                -0.07015615701675415,
                0.20097830891609192,
                0.15011516213417053,
                0.2026800513267517,
                0.2030039131641388,
                0.17850282788276672,
                -0.08034902811050415,
                -0.00921688973903656,
                -0.06721200793981552,
                0.20651574432849884,
                -0.0015496507985517383,
                -0.04764385521411896,
                -0.04468042030930519,
                -0.049667876213788986,
                0.2297639548778534,
                0.16388723254203796,
                0.13765846192836761,
                0.21731345355510712,
                -0.056777480989694595,
                0.1728818416595459,
                -0.04398658499121666,
                -0.05827178806066513,
                -0.03494049981236458,
                0.11903239786624908,
                0.002345580141991377,
                -0.03629017248749733,
                0.14769405126571655,
                -0.06986459344625473,
                -0.038413554430007935,
                -0.05325966328382492,
                0.06662077456712723,
                0.11362370103597641,
                0.09191164374351501,
                -0.04726465046405792,
                -0.025935763493180275,
                -0.01054153498262167,
                -0.041237831115722656,
                -0.0020108765456825495,
                -0.07244856655597687,
                0.054907798767089844,
                -0.01821007952094078,
                -0.07201308757066727,
                -0.07951885461807251,
                0.06743591278791428,
                -0.07042153179645538,
                0.12443514913320541,
                -0.005303272977471352,
                0.1545366495847702,
                0.14467357099056244,
                -0.015619571320712566,
                -0.0703962966799736,
                -0.04021047055721283,
                -0.08607997745275497,
                -0.07443953305482864,
                0.08590003848075867,
                0.10406544804573059,
                -0.07270941883325577,
                0.0495452806353569,
                -0.07737071812152863,
                0.07621697336435318,
                0.15524467825889587,
                -0.036088693886995316,
                0.0975046157836914,
                -0.06252344697713852,
                0.13724462687969208,
                0.15001414716243744,
                -0.05684931203722954,
                0.11016083508729935,
                -0.040587835013866425,
                -0.06822486221790314,
                0.07035283744335175,
                0.09335833042860031,
                0.07463127374649048,
                -0.043874405324459076,
                -0.07651399075984955,
                -0.00275918236002326,
                0.12255293130874634,
                0.11905968934297562,
                0.12466435134410858,
                0.12332125753164291,
                0.12753812968730927,
                0.0015328162116929889,
                -0.08169592916965485,
                0.011931289918720722,
                0.07405654340982437,
                -0.021331574767827988,
                -0.022202011197805405,
                -0.04084697738289833,
                -0.02978035993874073,
                0.07950203120708466,
                0.10197971761226654,
                0.1432454138994217,
                0.10717859119176865,
                -0.055033713579177856,
                0.06580103933811188,
                -0.05142843723297119,
                -0.050580430775880814,
                -0.003378652734681964,
                0.20315736532211304,
                -0.07039323449134827,
                -0.022650953382253647,
                0.14178895950317383,
                -0.0796981006860733,
                -0.025396497920155525,
                -0.04409578815102577,
                0.1519215852022171,
                0.2071278840303421,
                0.16031613945960999,
                -0.017819253727793694,
                -0.08227993547916412,
                -0.007866285741329193,
                -0.06573260575532913,
                -0.09351444244384766,
                -0.04646862670779228,
                0.21192842721939087,
                -0.079118512570858,
                -0.045100145041942596,
                -0.04105314239859581,
                0.12569156289100647,
                -0.0030294915195554495,
                0.116630919277668,
                -0.06296250969171524,
                0.1458955854177475,
                0.20099246501922607,
                -0.060228437185287476,
                -0.07136411219835281,
                -0.08412159234285355,
                0.003035118104889989,
                -0.038483619689941406,
                0.1623477339744568,
                0.20215670764446259,
                -0.054922305047512054,
                0.20243798196315765,
                -0.08499743044376373,
                0.1602470427751541,
                0.20007890462875366,
                -0.0077872490510344505,
                0.1918841153383255,
                -0.06928937882184982,
                0.17638584971427917,
                0.17636021971702576,
                -0.043456658720970154,
                0.22116601467132568,
                -0.09498070925474167,
                -0.028109613806009293,
                0.13461431860923767,
                0.17423275113105774,
                0.16564375162124634,
                -0.03246932849287987,
                -0.052886947989463806,
                -0.03375227376818657,
                0.2133704274892807,
                0.18421977758407593,
                0.16383789479732513,
                0.15139636397361755,
                0.1404210925102234,
                -0.0939190685749054,
                -0.032320015132427216,
                -0.08631307631731033,
                0.1793723851442337,
                -0.06466498970985413,
                -0.008204192854464054,
                -0.039025455713272095,
                -0.025635454803705215,
                0.18090930581092834,
                0.15756237506866455,
                0.17814351618289948,
                0.1830669641494751,
                -0.07276783883571625,
                0.130291149020195,
                -0.08493553102016449,
                -0.058132149279117584,
                -0.09191398322582245,
                0.13663411140441895,
                -0.021890901029109955,
                -0.07339927554130554,
                0.1919054239988327,
                -0.014491211622953415,
                -0.07004145532846451,
                0.006033316254615784,
                0.14194320142269135,
                0.16989777982234955,
                0.17104028165340424,
                -0.06267208606004715,
                -0.07336342334747314,
                -0.03215876966714859,
                -0.03806260973215103,
                -0.020860804244875908,
                0.013150271028280258,
                0.16980767250061035,
                -0.06957954913377762,
                -0.08026178181171417,
                -0.0668177381157875,
                0.11940333992242813,
                -0.004812296479940414,
                0.06637537479400635,
                -0.0028312313370406628,
                0.1526050865650177,
                0.17631815373897552,
                -0.03519399091601372,
                -0.0005685926298610866,
                -0.01040919404476881,
                -0.07384791225194931,
                -0.019084393978118896,
                0.09310290962457657,
                0.1871584951877594,
                -0.06155871972441673,
                0.14791344106197357,
                -0.0366080179810524,
                0.1037147268652916,
                0.11886639893054962,
                -0.058104027062654495,
                0.10763277858495712,
                -0.07222100347280502,
                0.18762853741645813,
                0.18256515264511108,
                -0.07130958139896393,
                0.10231402516365051,
                -0.031437091529369354,
                0.008632934652268887,
                0.11429143697023392,
                0.12669344246387482,
                0.1032228171825409,
                -0.007180429995059967,
                -0.0700468197464943,
                -0.019633667543530464,
                0.1504359245300293,
                0.13122163712978363,
                0.1461883932352066,
                0.14216454327106476,
                0.15327057242393494,
                -0.053768694400787354,
                -0.057289376854896545,
                -0.05053550750017166,
                0.16701021790504456,
                0.0035318019799888134,
                -0.005390831269323826,
                -0.026442987844347954,
                -0.0361662395298481,
                0.14612649381160736,
                0.17025913298130035,
                0.13104718923568726,
                0.10856974124908447,
                -0.020484937354922295,
                0.11351236701011658,
                -0.05889573693275452,
                -0.05100087821483612,
                -0.03310224786400795,
                -0.19883474707603455,
                -0.050712600350379944,
                -0.06424074620008469,
                -0.13776840269565582,
                -0.01665627770125866,
                -0.05470530316233635,
                0.018304945901036263,
                -0.17484542727470398,
                -0.16947418451309204,
                -0.14191117882728577,
                -0.03294835239648819,
                -0.05512076988816261,
                -0.056371405720710754,
                -0.05386735871434212,
                0.010930468328297138,
                0.0027538968715816736,
                -0.2222491204738617,
                -0.046120788902044296,
                0.007975396700203419,
                -0.016010794788599014,
                -0.14613133668899536,
                -0.04531514272093773,
                -0.1654825657606125,
                -0.025493120774626732,
                -0.21935252845287323,
                -0.154013991355896,
                -0.03238915652036667,
                0.018895873799920082,
                -0.03587065264582634,
                -0.06346713751554489,
                0.01325447577983141,
                -0.15763339400291443,
                -0.16460740566253662,
                -0.052392665296792984,
                -0.19019848108291626,
                0.0297018401324749,
                -0.2068886011838913,
                -0.1383875608444214,
                -0.02298998087644577,
                -0.15711353719234467,
                -0.03518165647983551,
                -0.15043941140174866,
                -0.17895354330539703,
                0.030503490939736366,
                -0.1409475952386856,
                -0.005765554029494524,
                -0.00964426714926958,
                -0.20629505813121796,
                -0.18579690158367157,
                -0.1706644743680954,
                0.003923806827515364,
                -0.008188001811504364,
                0.001850915839895606,
                -0.1873498111963272,
                -0.15746720135211945,
                -0.21624526381492615,
                -0.14540106058120728,
                -0.192128524184227,
                -0.017201395705342293,
                -0.001618418376892805,
                -0.04179105535149574,
                -0.17077989876270294,
                -0.0029630009084939957,
                0.02015068754553795,
                -0.06584104895591736,
                -0.021862560883164406,
                -0.13613535463809967,
                -0.14226222038269043,
                -0.14643621444702148,
                -0.14248479902744293,
                -0.004184456542134285,
                -0.14376871287822723,
                -0.011147626675665379,
                -0.035879507660865784,
                -0.008848224766552448,
                -0.15917252004146576,
                0.027212463319301605,
                0.024301128461956978,
                -0.19688059389591217,
                -0.013371502049267292,
                0.03011772222816944,
                -0.03153727203607559,
                -0.13482637703418732,
                -0.1691131889820099,
                -0.13787218928337097,
                -0.05878271907567978,
                -0.03906956687569618,
                -0.034897562116384506,
                -0.028215186670422554,
                -0.02876611240208149,
                -0.03080841153860092,
                -0.15017268061637878,
                -0.061716966331005096,
                -0.06371866911649704,
                0.010337156243622303,
                -0.17206865549087524,
                -0.044814467430114746,
                -0.14226333796977997,
                -0.040850743651390076,
                -0.21305525302886963,
                -0.1737600415945053,
                0.0036755846813321114,
                -0.05077510327100754,
                -0.03699864074587822,
                0.018355077132582664,
                0.008873284794390202,
                -0.15547659993171692,
                -0.22709918022155762,
                -0.017144905403256416,
                -0.20767763257026672,
                0.02928430400788784,
                -0.15008869767189026,
                -0.15819726884365082,
                -0.012098859064280987,
                -0.17112703621387482,
                -0.05185261368751526,
                -0.14716358482837677,
                -0.13302023708820343,
                0.0006070616655051708,
                -0.1931629478931427,
                -0.04339781403541565,
                -0.04886511340737343,
                -0.14084681868553162,
                -0.1425464153289795,
                -0.15035320818424225,
                0.00037223202525638044,
                0.009239457547664642,
                -0.033343635499477386,
                -0.16748826205730438,
                -0.2042912095785141,
                -0.1705792397260666,
                -0.18841753900051117,
                -0.18047143518924713,
                -0.024223238229751587,
                -0.001747623085975647,
                0.025706371292471886,
                -0.18416939675807953,
                -0.06297624111175537,
                -0.02140866592526436,
                -0.04397938773036003,
                -0.0189740639179945,
                -0.15116247534751892,
                -0.17564800381660461,
                -0.15924887359142303,
                -0.1803126484155655,
                -0.05071007460355759,
                -0.20527872443199158,
                0.02175992913544178,
                -0.024193815886974335,
                -0.016286423429846764,
                -0.21153244376182556,
                -0.036012258380651474,
                0.008745451457798481,
                -0.15843375027179718,
                -0.024175651371479034,
                -0.0015822608256712556,
                -0.029274247586727142,
                -0.18099893629550934,
                -0.22619834542274475,
                -0.14588940143585205,
                -0.03381352126598358,
                0.014009120874106884,
                -0.0006415765965357423,
                0.0013294484233483672,
                -0.0587388351559639,
                -0.06405343115329742,
                -0.17165090143680573,
                -0.02662595920264721,
                0.009560409933328629,
                0.016041118651628494,
                -0.151231050491333,
                -0.0235013198107481,
                -0.1714932769536972,
                -0.06066218391060829,
                -0.18631286919116974,
                -0.21724916994571686,
                -0.02161761187016964,
                -0.04806257784366608,
                0.0025819698348641396,
                0.029447846114635468,
                -0.049176499247550964,
                -0.22608181834220886,
                -0.19319921731948853,
                -0.00027581246104091406,
                -0.1442025601863861,
                -0.060846999287605286,
                -0.2352127581834793,
                -0.16105122864246368,
                -0.0455513559281826,
                -0.17929355800151825,
                0.00592665234580636,
                -0.2129019796848297,
                -0.2110639214515686,
                -0.013252349570393562,
                -0.1602049469947815,
                0.032780323177576065,
                -0.0046545048244297504,
                -0.24422785639762878,
                -0.20054438710212708,
                -0.19749689102172852,
                -0.031653065234422684,
                -0.04792565107345581,
                -3.914450644515455e-05,
                -0.23958632349967957,
                -0.18636609613895416,
                -0.1922025978565216,
                -0.15996986627578735,
                -0.15145334601402283,
                0.013773232698440552,
                -0.05358206480741501,
                0.0006091140676289797,
                -0.21295157074928284,
                -0.012043205089867115,
                0.018754439428448677,
                0.011030688881874084,
                -0.012427916750311852,
                -0.23323266208171844,
                -0.14792154729366302,
                -0.18286558985710144,
                -0.19171398878097534,
                -0.04679379239678383,
                -0.1553788036108017,
                -0.0038474451284855604,
                -0.03899942710995674,
                0.023118987679481506,
                -0.23924215137958527,
                -0.002778328489512205,
                0.03065492957830429,
                -0.14246419072151184,
                -0.03742415830492973,
                -0.05028582736849785,
                0.007284798659384251,
                -0.2106260061264038,
                -0.21987681090831757,
                -0.20480535924434662,
                -0.056488726288080215,
                -0.04091264307498932,
                -0.04216940328478813,
                0.039542943239212036,
                0.007294259965419769,
                -0.02408631518483162,
                -0.17808464169502258,
                -0.05811863765120506,
                -0.01885531097650528,
                0.0138526177033782,
                -0.2071252167224884,
                -0.05252262204885483,
                -0.20238105952739716,
                0.017328087240457535,
                -0.22474783658981323,
                -0.20497740805149078,
                -0.0592944361269474,
                0.01859063282608986,
                -0.0063342987559735775,
                -0.032729607075452805,
                -0.0170984398573637,
                -0.18720851838588715,
                -0.2116665095090866,
                0.026104815304279327,
                -0.14508597552776337,
                -0.02266484498977661,
                -0.1578180491924286,
                -0.15279816091060638,
                0.031227348372340202,
                -0.17423750460147858,
                -0.054735083132982254,
                -0.15704956650733948,
                -0.13359053432941437,
                0.01842961460351944,
                -0.19641272723674774,
                0.03389222174882889,
                -0.05663628131151199,
                -0.2024213969707489,
                -0.16821008920669556,
                -0.16089721024036407,
                0.01892152428627014,
                0.014410206116735935,
                -0.0379299633204937,
                -0.13691794872283936,
                -0.1439719945192337,
                -0.23198872804641724,
                -0.2204219102859497,
                -0.2114226222038269,
                -0.0007650377228856087,
                0.03261394426226616,
                0.017138365656137466,
                -0.17006300389766693,
                -0.05541449412703514,
                -0.025527600198984146,
                -0.01427087839692831,
                0.005437430925667286,
                -0.16393475234508514,
                -0.21509931981563568,
                -0.18625731766223907,
                -0.1551775336265564,
                -0.012005053460597992,
                -0.18095776438713074,
                -0.04131186753511429,
                -0.03697727993130684,
                -0.0402185283601284,
                -0.21511849761009216,
                -0.03253420814871788,
                0.0261823870241642,
                -0.17186591029167175,
                -0.04275922849774361,
                -0.05413426458835602,
                -0.029371609911322594,
                -0.21144625544548035,
                -0.19630832970142365,
                -0.2344561368227005,
                -0.020793702453374863,
                -0.02388366311788559,
                0.0026826790999621153,
                0.004393510986119509,
                -0.03224105387926102,
                0.02656901814043522,
                -0.15058591961860657,
                0.002907196059823036,
                -0.01407954003661871,
                0.018157143145799637,
                -0.19121266901493073,
                -0.004095037467777729,
                -0.19480036199092865,
                0.006934287957847118,
                -0.23604559898376465,
                -0.1591915786266327,
                0.03464990109205246,
                -0.03411313146352768,
                -0.06047222763299942,
                -0.02507970482110977,
                -0.005656351335346699,
